digraph Tree {
node [shape=box] ;
0 [label="Glucose <= 144.5\nentropy = 0.948\nsamples = 575\nvalue = [364, 211]"] ;
1 [label="BMI <= 26.35\nentropy = 0.807\nsamples = 445\nvalue = [335, 110]"] ;
0 -> 1 [labeldistance=2.5, labelangle=45, headlabel="True"] ;
2 [label="Glucose <= 106.5\nentropy = 0.212\nsamples = 119\nvalue = [115, 4]"] ;
1 -> 2 ;
3 [label="entropy = 0.0\nsamples = 70\nvalue = [70, 0]"] ;
2 -> 3 ;
4 [label="SkinThickness <= 13.5\nentropy = 0.408\nsamples = 49\nvalue = [45, 4]"] ;
2 -> 4 ;
5 [label="Glucose <= 138.0\nentropy = 0.592\nsamples = 28\nvalue = [24, 4]"] ;
4 -> 5 ;
6 [label="BMI <= 9.8\nentropy = 0.503\nsamples = 27\nvalue = [24, 3]"] ;
5 -> 6 ;
7 [label="entropy = 1.0\nsamples = 4\nvalue = [2, 2]"] ;
6 -> 7 ;
8 [label="Glucose <= 107.5\nentropy = 0.258\nsamples = 23\nvalue = [22, 1]"] ;
6 -> 8 ;
9 [label="entropy = 1.0\nsamples = 2\nvalue = [1, 1]"] ;
8 -> 9 ;
10 [label="entropy = 0.0\nsamples = 21\nvalue = [21, 0]"] ;
8 -> 10 ;
11 [label="entropy = 0.0\nsamples = 1\nvalue = [0, 1]"] ;
5 -> 11 ;
12 [label="entropy = 0.0\nsamples = 21\nvalue = [21, 0]"] ;
4 -> 12 ;
13 [label="Glucose <= 100.5\nentropy = 0.91\nsamples = 326\nvalue = [220, 106]"] ;
1 -> 13 ;
14 [label="Age <= 22.5\nentropy = 0.54\nsamples = 105\nvalue = [92, 13]"] ;
13 -> 14 ;
15 [label="entropy = 0.0\nsamples = 30\nvalue = [30, 0]"] ;
14 -> 15 ;
16 [label="Insulin <= 86.5\nentropy = 0.665\nsamples = 75\nvalue = [62, 13]"] ;
14 -> 16 ;
17 [label="SkinThickness <= 24.5\nentropy = 0.464\nsamples = 61\nvalue = [55, 6]"] ;
16 -> 17 ;
18 [label="entropy = 0.0\nsamples = 23\nvalue = [23, 0]"] ;
17 -> 18 ;
19 [label="Age <= 44.0\nentropy = 0.629\nsamples = 38\nvalue = [32, 6]"] ;
17 -> 19 ;
20 [label="BloodPressure <= 79.0\nentropy = 0.513\nsamples = 35\nvalue = [31, 4]"] ;
19 -> 20 ;
21 [label="SkinThickness <= 41.5\nentropy = 0.229\nsamples = 27\nvalue = [26, 1]"] ;
20 -> 21 ;
22 [label="entropy = 0.0\nsamples = 23\nvalue = [23, 0]"] ;
21 -> 22 ;
23 [label="entropy = 0.811\nsamples = 4\nvalue = [3, 1]"] ;
21 -> 23 ;
24 [label="entropy = 0.954\nsamples = 8\nvalue = [5, 3]"] ;
20 -> 24 ;
25 [label="entropy = 0.918\nsamples = 3\nvalue = [1, 2]"] ;
19 -> 25 ;
26 [label="entropy = 1.0\nsamples = 14\nvalue = [7, 7]"] ;
16 -> 26 ;
27 [label="Age <= 28.5\nentropy = 0.982\nsamples = 221\nvalue = [128, 93]"] ;
13 -> 27 ;
28 [label="BloodPressure <= 22.0\nentropy = 0.838\nsamples = 101\nvalue = [74, 27]"] ;
27 -> 28 ;
29 [label="entropy = 0.0\nsamples = 4\nvalue = [0, 4]"] ;
28 -> 29 ;
30 [label="BMI <= 30.3\nentropy = 0.79\nsamples = 97\nvalue = [74, 23]"] ;
28 -> 30 ;
31 [label="Age <= 27.5\nentropy = 0.267\nsamples = 22\nvalue = [21, 1]"] ;
30 -> 31 ;
32 [label="entropy = 0.0\nsamples = 21\nvalue = [21, 0]"] ;
31 -> 32 ;
33 [label="entropy = 0.0\nsamples = 1\nvalue = [0, 1]"] ;
31 -> 33 ;
34 [label="Glucose <= 124.5\nentropy = 0.873\nsamples = 75\nvalue = [53, 22]"] ;
30 -> 34 ;
35 [label="Insulin <= 122.5\nentropy = 0.696\nsamples = 48\nvalue = [39, 9]"] ;
34 -> 35 ;
36 [label="BMI <= 45.4\nentropy = 0.869\nsamples = 31\nvalue = [22, 9]"] ;
35 -> 36 ;
37 [label="BMI <= 36.7\nentropy = 0.797\nsamples = 29\nvalue = [22, 7]"] ;
36 -> 37 ;
38 [label="Insulin <= 75.5\nentropy = 0.902\nsamples = 22\nvalue = [15, 7]"] ;
37 -> 38 ;
39 [label="entropy = 0.971\nsamples = 10\nvalue = [4, 6]"] ;
38 -> 39 ;
40 [label="entropy = 0.414\nsamples = 12\nvalue = [11, 1]"] ;
38 -> 40 ;
41 [label="entropy = 0.0\nsamples = 7\nvalue = [7, 0]"] ;
37 -> 41 ;
42 [label="entropy = 0.0\nsamples = 2\nvalue = [0, 2]"] ;
36 -> 42 ;
43 [label="entropy = 0.0\nsamples = 17\nvalue = [17, 0]"] ;
35 -> 43 ;
44 [label="Insulin <= 199.0\nentropy = 0.999\nsamples = 27\nvalue = [14, 13]"] ;
34 -> 44 ;
45 [label="entropy = 0.949\nsamples = 19\nvalue = [7, 12]"] ;
44 -> 45 ;
46 [label="entropy = 0.544\nsamples = 8\nvalue = [7, 1]"] ;
44 -> 46 ;
47 [label="Insulin <= 142.0\nentropy = 0.993\nsamples = 120\nvalue = [54, 66]"] ;
27 -> 47 ;
48 [label="Age <= 47.5\nentropy = 0.997\nsamples = 94\nvalue = [50, 44]"] ;
47 -> 48 ;
49 [label="Insulin <= 132.5\nentropy = 0.998\nsamples = 80\nvalue = [38, 42]"] ;
48 -> 49 ;
50 [label="SkinThickness <= 39.5\nentropy = 0.994\nsamples = 77\nvalue = [35, 42]"] ;
49 -> 50 ;
51 [label="Glucose <= 104.5\nentropy = 0.977\nsamples = 68\nvalue = [28, 40]"] ;
50 -> 51 ;
52 [label="entropy = 0.0\nsamples = 6\nvalue = [0, 6]"] ;
51 -> 52 ;
53 [label="BloodPressure <= 75.0\nentropy = 0.993\nsamples = 62\nvalue = [28, 34]"] ;
51 -> 53 ;
54 [label="BMI <= 31.95\nentropy = 0.898\nsamples = 35\nvalue = [11, 24]"] ;
53 -> 54 ;
55 [label="entropy = 0.998\nsamples = 19\nvalue = [9, 10]"] ;
54 -> 55 ;
56 [label="entropy = 0.544\nsamples = 16\nvalue = [2, 14]"] ;
54 -> 56 ;
57 [label="DiabetesPedigreeFunction <= 0.221\nentropy = 0.951\nsamples = 27\nvalue = [17, 10]"] ;
53 -> 57 ;
58 [label="entropy = 0.0\nsamples = 5\nvalue = [5, 0]"] ;
57 -> 58 ;
59 [label="SkinThickness <= 34.0\nentropy = 0.994\nsamples = 22\nvalue = [12, 10]"] ;
57 -> 59 ;
60 [label="entropy = 0.918\nsamples = 18\nvalue = [12, 6]"] ;
59 -> 60 ;
61 [label="entropy = 0.0\nsamples = 4\nvalue = [0, 4]"] ;
59 -> 61 ;
62 [label="entropy = 0.764\nsamples = 9\nvalue = [7, 2]"] ;
50 -> 62 ;
63 [label="entropy = 0.0\nsamples = 3\nvalue = [3, 0]"] ;
49 -> 63 ;
64 [label="entropy = 0.592\nsamples = 14\nvalue = [12, 2]"] ;
48 -> 64 ;
65 [label="Age <= 33.5\nentropy = 0.619\nsamples = 26\nvalue = [4, 22]"] ;
47 -> 65 ;
66 [label="entropy = 0.0\nsamples = 10\nvalue = [0, 10]"] ;
65 -> 66 ;
67 [label="entropy = 0.811\nsamples = 16\nvalue = [4, 12]"] ;
65 -> 67 ;
68 [label="Glucose <= 166.5\nentropy = 0.766\nsamples = 130\nvalue = [29, 101]"] ;
0 -> 68 [labeldistance=2.5, labelangle=-45, headlabel="False"] ;
69 [label="Pregnancies <= 6.5\nentropy = 0.932\nsamples = 69\nvalue = [24, 45]"] ;
68 -> 69 ;
70 [label="Insulin <= 133.5\nentropy = 1.0\nsamples = 43\nvalue = [21, 22]"] ;
69 -> 70 ;
71 [label="BMI <= 35.45\nentropy = 0.951\nsamples = 27\nvalue = [10, 17]"] ;
70 -> 71 ;
72 [label="entropy = 0.971\nsamples = 15\nvalue = [9, 6]"] ;
71 -> 72 ;
73 [label="entropy = 0.414\nsamples = 12\nvalue = [1, 11]"] ;
71 -> 73 ;
74 [label="entropy = 0.896\nsamples = 16\nvalue = [11, 5]"] ;
70 -> 74 ;
75 [label="DiabetesPedigreeFunction <= 0.298\nentropy = 0.516\nsamples = 26\nvalue = [3, 23]"] ;
69 -> 75 ;
76 [label="entropy = 0.954\nsamples = 8\nvalue = [3, 5]"] ;
75 -> 76 ;
77 [label="entropy = 0.0\nsamples = 18\nvalue = [0, 18]"] ;
75 -> 77 ;
78 [label="Age <= 57.5\nentropy = 0.409\nsamples = 61\nvalue = [5, 56]"] ;
68 -> 78 ;
79 [label="Glucose <= 190.0\nentropy = 0.232\nsamples = 53\nvalue = [2, 51]"] ;
78 -> 79 ;
80 [label="entropy = 0.0\nsamples = 44\nvalue = [0, 44]"] ;
79 -> 80 ;
81 [label="entropy = 0.764\nsamples = 9\nvalue = [2, 7]"] ;
79 -> 81 ;
82 [label="entropy = 0.954\nsamples = 8\nvalue = [3, 5]"] ;
78 -> 82 ;
}